encog,BasicNetwork,java,3.2.0,1,1495556355075
[BASIC]
[BASIC:PARAMS]
[BASIC:NETWORK]
beginTraining=0
connectionLimit=0
contextTargetOffset=0,0,0
contextTargetSize=0,0,0
endTraining=2
hasContext=f
inputCount=8
layerCounts=1,9,9
layerFeedCounts=1,8,8
layerContextCount=0,0,0
layerIndex=0,1,10
output=0,0,0,0,0,0,0,0,0,1,0.274350717,0.824589655,0.330037832,0.026918175,0.842789279,0.555254601,0.040917709,0.002855419,1
outputCount=1
weightIndex=0,9,81
weights=0.5343359164,-5.9017661926,-3.3110410222,-0.0676771684,1.4147597559,6.0691018791,0.9121638522,-0.121836718,-32.3002868211,25458.0442920586,7303.2222638235,-29677.5719213117,-21610.7994065155,-19688.7373701389,-26171.6171781844,7334.6716543649,2321.8886373347,-5069.1711897942,17454.9890359249,4928.2484277402,-20975.1488266454,-15169.1274750277,-14054.7662193375,-18954.3285606813,5143.9923158141,1686.1486478183,-4359.2503624715,29559.4754787887,8556.598711079,-34354.9156640613,-24987.6033441808,-22850.6012318982,-30427.6068275205,8525.3817080309,2724.409915194,-5964.3106854362,29989.312815584,8680.8106451987,-34833.2544669603,-25338.9995965369,-23233.5919091338,-30963.108699287,8700.4356219337,2784.9421730024,-6017.8309424006,34515.0603566655,9999.2248183651,-40116.8197966711,-29173.0948594067,-26469.5299217055,-35123.1523113061,9765.3720129038,3095.6561348751,-6972.2194400086,10337.3407986532,2829.7851092942,-12804.4911491347,-9226.0405485425,-8992.0687483925,-12439.633947416,3419.5998539959,1174.6680053959,-3012.9140905198,10819.1765687236,2962.1911496653,-13402.3688632975,-9654.2947787983,-9582.3405848582,-13330.369150006,3704.051786222,1285.4087658232,-3173.1334560786,24112.7294794401,6872.4519330381,-28140.407122004,-20517.4657784031,-18435.4894798902,-24356.1708142699,6784.7436738871,2109.5001261815,-4684.0988406691
biasActivation=0,1,1
[BASIC:ACTIVATION]
"org.encog.engine.network.activation.ActivationSigmoid"
"org.encog.engine.network.activation.ActivationSigmoid"
"org.encog.engine.network.activation.ActivationLinear"
